digraph Tree {
node [shape=box, style="filled, rounded", color="black", fontname="helvetica"] ;
edge [fontname="helvetica"] ;
0 [label="total day minutes <= 263.55\ngini = 0.245\nsamples = 2499\nvalue = [2141, 358]\nclass = churn", fillcolor="#e9965a"] ;
1 [label="customer service calls <= 3.5\ngini = 0.201\nsamples = 2333\nvalue = [2068, 265]\nclass = churn", fillcolor="#e89152"] ;
0 -> 1 [labeldistance=2.5, labelangle=45, headlabel="True"] ;
2 [label="international plan_yes <= 0.5\ngini = 0.145\nsamples = 2145\nvalue = [1976, 169]\nclass = churn", fillcolor="#e78c4a"] ;
1 -> 2 ;
3 [label="total day minutes <= 223.25\ngini = 0.093\nsamples = 1950\nvalue = [1855, 95]\nclass = churn", fillcolor="#e68743"] ;
2 -> 3 ;
4 [label="total eve minutes <= 341.15\ngini = 0.053\nsamples = 1673\nvalue = [1627, 46]\nclass = churn", fillcolor="#e6853f"] ;
3 -> 4 ;
5 [label="total night charge <= 15.91\ngini = 0.051\nsamples = 1667\nvalue = [1623, 44]\nclass = churn", fillcolor="#e6843e"] ;
4 -> 5 ;
6 [label="number vmail messages <= 47.5\ngini = 0.05\nsamples = 1662\nvalue = [1619, 43]\nclass = churn", fillcolor="#e6843e"] ;
5 -> 6 ;
7 [label="total eve minutes <= 168.75\ngini = 0.049\nsamples = 1657\nvalue = [1615, 42]\nclass = churn", fillcolor="#e6843e"] ;
6 -> 7 ;
8 [label="account length <= 146.5\ngini = 0.021\nsamples = 467\nvalue = [462, 5]\nclass = churn", fillcolor="#e5823b"] ;
7 -> 8 ;
9 [label="account length <= 25.5\ngini = 0.01\nsamples = 410\nvalue = [408, 2]\nclass = churn", fillcolor="#e5823a"] ;
8 -> 9 ;
10 [label="total day calls <= 73.5\ngini = 0.165\nsamples = 11\nvalue = [10, 1]\nclass = churn", fillcolor="#e88e4d"] ;
9 -> 10 ;
11 [label="gini = 0.0\nsamples = 1\nvalue = [0, 1]\nclass = non-churn", fillcolor="#399de5"] ;
10 -> 11 ;
12 [label="gini = 0.0\nsamples = 10\nvalue = [10, 0]\nclass = churn", fillcolor="#e58139"] ;
10 -> 12 ;
13 [label="total eve minutes <= 75.85\ngini = 0.005\nsamples = 399\nvalue = [398, 1]\nclass = churn", fillcolor="#e58139"] ;
9 -> 13 ;
14 [label="account length <= 117.5\ngini = 0.153\nsamples = 12\nvalue = [11, 1]\nclass = churn", fillcolor="#e78c4b"] ;
13 -> 14 ;
15 [label="gini = 0.0\nsamples = 11\nvalue = [11, 0]\nclass = churn", fillcolor="#e58139"] ;
14 -> 15 ;
16 [label="gini = 0.0\nsamples = 1\nvalue = [0, 1]\nclass = non-churn", fillcolor="#399de5"] ;
14 -> 16 ;
17 [label="gini = 0.0\nsamples = 387\nvalue = [387, 0]\nclass = churn", fillcolor="#e58139"] ;
13 -> 17 ;
18 [label="total day calls <= 69.5\ngini = 0.1\nsamples = 57\nvalue = [54, 3]\nclass = churn", fillcolor="#e68844"] ;
8 -> 18 ;
19 [label="total night calls <= 109.5\ngini = 0.444\nsamples = 3\nvalue = [2, 1]\nclass = churn", fillcolor="#f2c09c"] ;
18 -> 19 ;
20 [label="gini = 0.0\nsamples = 2\nvalue = [2, 0]\nclass = churn", fillcolor="#e58139"] ;
19 -> 20 ;
21 [label="gini = 0.0\nsamples = 1\nvalue = [0, 1]\nclass = non-churn", fillcolor="#399de5"] ;
19 -> 21 ;
22 [label="number vmail messages <= 33.5\ngini = 0.071\nsamples = 54\nvalue = [52, 2]\nclass = churn", fillcolor="#e68641"] ;
18 -> 22 ;
23 [label="total day minutes <= 99.0\ngini = 0.038\nsamples = 51\nvalue = [50, 1]\nclass = churn", fillcolor="#e6843d"] ;
22 -> 23 ;
24 [label="total day charge <= 12.47\ngini = 0.375\nsamples = 4\nvalue = [3, 1]\nclass = churn", fillcolor="#eeab7b"] ;
23 -> 24 ;
25 [label="gini = 0.0\nsamples = 3\nvalue = [3, 0]\nclass = churn", fillcolor="#e58139"] ;
24 -> 25 ;
26 [label="gini = 0.0\nsamples = 1\nvalue = [0, 1]\nclass = non-churn", fillcolor="#399de5"] ;
24 -> 26 ;
27 [label="gini = 0.0\nsamples = 47\nvalue = [47, 0]\nclass = churn", fillcolor="#e58139"] ;
23 -> 27 ;
28 [label="total eve calls <= 96.5\ngini = 0.444\nsamples = 3\nvalue = [2, 1]\nclass = churn", fillcolor="#f2c09c"] ;
22 -> 28 ;
29 [label="gini = 0.0\nsamples = 2\nvalue = [2, 0]\nclass = churn", fillcolor="#e58139"] ;
28 -> 29 ;
30 [label="gini = 0.0\nsamples = 1\nvalue = [0, 1]\nclass = non-churn", fillcolor="#399de5"] ;
28 -> 30 ;
31 [label="total eve charge <= 14.385\ngini = 0.06\nsamples = 1190\nvalue = [1153, 37]\nclass = churn", fillcolor="#e6853f"] ;
7 -> 31 ;
32 [label="total day minutes <= 136.4\ngini = 0.444\nsamples = 6\nvalue = [4, 2]\nclass = churn", fillcolor="#f2c09c"] ;
31 -> 32 ;
33 [label="account length <= 134.0\ngini = 0.444\nsamples = 3\nvalue = [1, 2]\nclass = non-churn", fillcolor="#9ccef2"] ;
32 -> 33 ;
34 [label="gini = 0.0\nsamples = 2\nvalue = [0, 2]\nclass = non-churn", fillcolor="#399de5"] ;
33 -> 34 ;
35 [label="gini = 0.0\nsamples = 1\nvalue = [1, 0]\nclass = churn", fillcolor="#e58139"] ;
33 -> 35 ;
36 [label="gini = 0.0\nsamples = 3\nvalue = [3, 0]\nclass = churn", fillcolor="#e58139"] ;
32 -> 36 ;
37 [label="total day charge <= 35.795\ngini = 0.057\nsamples = 1184\nvalue = [1149, 35]\nclass = churn", fillcolor="#e6853f"] ;
31 -> 37 ;
38 [label="total night calls <= 104.5\ngini = 0.049\nsamples = 1070\nvalue = [1043, 27]\nclass = churn", fillcolor="#e6843e"] ;
37 -> 38 ;
39 [label="total day calls <= 146.5\ngini = 0.028\nsamples = 624\nvalue = [615, 9]\nclass = churn", fillcolor="#e5833c"] ;
38 -> 39 ;
40 [label="total eve charge <= 19.195\ngini = 0.026\nsamples = 619\nvalue = [611, 8]\nclass = churn", fillcolor="#e5833c"] ;
39 -> 40 ;
41 [label="total eve charge <= 19.17\ngini = 0.044\nsamples = 356\nvalue = [348, 8]\nclass = churn", fillcolor="#e6843e"] ;
40 -> 41 ;
42 [label="total night charge <= 11.5\ngini = 0.039\nsamples = 355\nvalue = [348.0, 7.0]\nclass = churn", fillcolor="#e6843d"] ;
41 -> 42 ;
43 [label="total day calls <= 125.5\ngini = 0.026\nsamples = 306\nvalue = [302, 4]\nclass = churn", fillcolor="#e5833c"] ;
42 -> 43 ;
44 [label="total eve minutes <= 209.05\ngini = 0.014\nsamples = 278\nvalue = [276, 2]\nclass = churn", fillcolor="#e5823a"] ;
43 -> 44 ;
45 [label="gini = 0.0\nsamples = 193\nvalue = [193, 0]\nclass = churn", fillcolor="#e58139"] ;
44 -> 45 ;
46 [label="total eve charge <= 17.775\ngini = 0.046\nsamples = 85\nvalue = [83, 2]\nclass = churn", fillcolor="#e6843e"] ;
44 -> 46 ;
47 [label="total eve calls <= 92.5\ngini = 0.444\nsamples = 3\nvalue = [2, 1]\nclass = churn", fillcolor="#f2c09c"] ;
46 -> 47 ;
48 [label="gini = 0.0\nsamples = 1\nvalue = [0, 1]\nclass = non-churn", fillcolor="#399de5"] ;
47 -> 48 ;
49 [label="gini = 0.0\nsamples = 2\nvalue = [2, 0]\nclass = churn", fillcolor="#e58139"] ;
47 -> 49 ;
50 [label="total day calls <= 85.5\ngini = 0.024\nsamples = 82\nvalue = [81, 1]\nclass = churn", fillcolor="#e5833b"] ;
46 -> 50 ;
51 [label="number vmail messages <= 25.5\ngini = 0.124\nsamples = 15\nvalue = [14, 1]\nclass = churn", fillcolor="#e78a47"] ;
50 -> 51 ;
52 [label="gini = 0.0\nsamples = 13\nvalue = [13, 0]\nclass = churn", fillcolor="#e58139"] ;
51 -> 52 ;
53 [label="total intl calls <= 3.0\ngini = 0.5\nsamples = 2\nvalue = [1, 1]\nclass = churn", fillcolor="#ffffff"] ;
51 -> 53 ;
54 [label="gini = 0.0\nsamples = 1\nvalue = [1, 0]\nclass = churn", fillcolor="#e58139"] ;
53 -> 54 ;
55 [label="gini = 0.0\nsamples = 1\nvalue = [0, 1]\nclass = non-churn", fillcolor="#399de5"] ;
53 -> 55 ;
56 [label="gini = 0.0\nsamples = 67\nvalue = [67, 0]\nclass = churn", fillcolor="#e58139"] ;
50 -> 56 ;
57 [label="total day calls <= 127.0\ngini = 0.133\nsamples = 28\nvalue = [26, 2]\nclass = churn", fillcolor="#e78b48"] ;
43 -> 57 ;
58 [label="gini = 0.0\nsamples = 1\nvalue = [0, 1]\nclass = non-churn", fillcolor="#399de5"] ;
57 -> 58 ;
59 [label="total day calls <= 129.5\ngini = 0.071\nsamples = 27\nvalue = [26, 1]\nclass = churn", fillcolor="#e68641"] ;
57 -> 59 ;
60 [label="total night charge <= 8.22\ngini = 0.444\nsamples = 3\nvalue = [2, 1]\nclass = churn", fillcolor="#f2c09c"] ;
59 -> 60 ;
61 [label="gini = 0.0\nsamples = 1\nvalue = [0, 1]\nclass = non-churn", fillcolor="#399de5"] ;
60 -> 61 ;
62 [label="gini = 0.0\nsamples = 2\nvalue = [2, 0]\nclass = churn", fillcolor="#e58139"] ;
60 -> 62 ;
63 [label="gini = 0.0\nsamples = 24\nvalue = [24, 0]\nclass = churn", fillcolor="#e58139"] ;
59 -> 63 ;
64 [label="total night charge <= 11.515\ngini = 0.115\nsamples = 49\nvalue = [46, 3]\nclass = churn", fillcolor="#e78946"] ;
42 -> 64 ;
65 [label="gini = 0.0\nsamples = 1\nvalue = [0, 1]\nclass = non-churn", fillcolor="#399de5"] ;
64 -> 65 ;
66 [label="total night calls <= 102.5\ngini = 0.08\nsamples = 48\nvalue = [46, 2]\nclass = churn", fillcolor="#e68642"] ;
64 -> 66 ;
67 [label="total intl charge <= 3.7\ngini = 0.042\nsamples = 47\nvalue = [46, 1]\nclass = churn", fillcolor="#e6843d"] ;
66 -> 67 ;
68 [label="gini = 0.0\nsamples = 42\nvalue = [42, 0]\nclass = churn", fillcolor="#e58139"] ;
67 -> 68 ;
69 [label="total eve charge <= 17.805\ngini = 0.32\nsamples = 5\nvalue = [4, 1]\nclass = churn", fillcolor="#eca06a"] ;
67 -> 69 ;
70 [label="gini = 0.0\nsamples = 4\nvalue = [4, 0]\nclass = churn", fillcolor="#e58139"] ;
69 -> 70 ;
71 [label="gini = 0.0\nsamples = 1\nvalue = [0, 1]\nclass = non-churn", fillcolor="#399de5"] ;
69 -> 71 ;
72 [label="gini = 0.0\nsamples = 1\nvalue = [0, 1]\nclass = non-churn", fillcolor="#399de5"] ;
66 -> 72 ;
73 [label="gini = 0.0\nsamples = 1\nvalue = [0, 1]\nclass = non-churn", fillcolor="#399de5"] ;
41 -> 73 ;
74 [label="gini = 0.0\nsamples = 263\nvalue = [263, 0]\nclass = churn", fillcolor="#e58139"] ;
40 -> 74 ;
75 [label="total eve charge <= 18.39\ngini = 0.32\nsamples = 5\nvalue = [4, 1]\nclass = churn", fillcolor="#eca06a"] ;
39 -> 75 ;
76 [label="gini = 0.0\nsamples = 1\nvalue = [0, 1]\nclass = non-churn", fillcolor="#399de5"] ;
75 -> 76 ;
77 [label="gini = 0.0\nsamples = 4\nvalue = [4, 0]\nclass = churn", fillcolor="#e58139"] ;
75 -> 77 ;
78 [label="account length <= 151.5\ngini = 0.077\nsamples = 446\nvalue = [428, 18]\nclass = churn", fillcolor="#e68641"] ;
38 -> 78 ;
79 [label="total intl minutes <= 15.4\ngini = 0.062\nsamples = 403\nvalue = [390, 13]\nclass = churn", fillcolor="#e68540"] ;
78 -> 79 ;
80 [label="total day calls <= 106.5\ngini = 0.055\nsamples = 392\nvalue = [381, 11]\nclass = churn", fillcolor="#e6853f"] ;
79 -> 80 ;
81 [label="total night charge <= 13.285\ngini = 0.079\nsamples = 268\nvalue = [257, 11]\nclass = churn", fillcolor="#e68641"] ;
80 -> 81 ;
82 [label="total eve calls <= 73.5\ngini = 0.073\nsamples = 264\nvalue = [254, 10]\nclass = churn", fillcolor="#e68641"] ;
81 -> 82 ;
83 [label="total night calls <= 117.0\ngini = 0.211\nsamples = 25\nvalue = [22, 3]\nclass = churn", fillcolor="#e99254"] ;
82 -> 83 ;
84 [label="gini = 0.0\nsamples = 13\nvalue = [13, 0]\nclass = churn", fillcolor="#e58139"] ;
83 -> 84 ;
85 [label="total eve minutes <= 224.05\ngini = 0.375\nsamples = 12\nvalue = [9, 3]\nclass = churn", fillcolor="#eeab7b"] ;
83 -> 85 ;
86 [label="gini = 0.0\nsamples = 6\nvalue = [6, 0]\nclass = churn", fillcolor="#e58139"] ;
85 -> 86 ;
87 [label="total intl calls <= 4.5\ngini = 0.5\nsamples = 6\nvalue = [3, 3]\nclass = churn", fillcolor="#ffffff"] ;
85 -> 87 ;
88 [label="total eve minutes <= 233.9\ngini = 0.375\nsamples = 4\nvalue = [3, 1]\nclass = churn", fillcolor="#eeab7b"] ;
87 -> 88 ;
89 [label="gini = 0.0\nsamples = 1\nvalue = [0, 1]\nclass = non-churn", fillcolor="#399de5"] ;
88 -> 89 ;
90 [label="gini = 0.0\nsamples = 3\nvalue = [3, 0]\nclass = churn", fillcolor="#e58139"] ;
88 -> 90 ;
91 [label="gini = 0.0\nsamples = 2\nvalue = [0, 2]\nclass = non-churn", fillcolor="#399de5"] ;
87 -> 91 ;
92 [label="total day minutes <= 118.55\ngini = 0.057\nsamples = 239\nvalue = [232, 7]\nclass = churn", fillcolor="#e6853f"] ;
82 -> 92 ;
93 [label="total day calls <= 105.5\ngini = 0.172\nsamples = 42\nvalue = [38, 4]\nclass = churn", fillcolor="#e88e4e"] ;
92 -> 93 ;
94 [label="total day charge <= 20.01\ngini = 0.136\nsamples = 41\nvalue = [38, 3]\nclass = churn", fillcolor="#e78b49"] ;
93 -> 94 ;
95 [label="total night calls <= 106.5\ngini = 0.095\nsamples = 40\nvalue = [38, 2]\nclass = churn", fillcolor="#e68843"] ;
94 -> 95 ;
96 [label="total intl minutes <= 11.6\ngini = 0.5\nsamples = 2\nvalue = [1, 1]\nclass = churn", fillcolor="#ffffff"] ;
95 -> 96 ;
97 [label="gini = 0.0\nsamples = 1\nvalue = [1, 0]\nclass = churn", fillcolor="#e58139"] ;
96 -> 97 ;
98 [label="gini = 0.0\nsamples = 1\nvalue = [0, 1]\nclass = non-churn", fillcolor="#399de5"] ;
96 -> 98 ;
99 [label="number vmail messages <= 38.0\ngini = 0.051\nsamples = 38\nvalue = [37, 1]\nclass = churn", fillcolor="#e6843e"] ;
95 -> 99 ;
100 [label="gini = 0.0\nsamples = 35\nvalue = [35, 0]\nclass = churn", fillcolor="#e58139"] ;
99 -> 100 ;
101 [label="total eve minutes <= 193.5\ngini = 0.444\nsamples = 3\nvalue = [2, 1]\nclass = churn", fillcolor="#f2c09c"] ;
99 -> 101 ;
102 [label="gini = 0.0\nsamples = 1\nvalue = [0, 1]\nclass = non-churn", fillcolor="#399de5"] ;
101 -> 102 ;
103 [label="gini = 0.0\nsamples = 2\nvalue = [2, 0]\nclass = churn", fillcolor="#e58139"] ;
101 -> 103 ;
104 [label="gini = 0.0\nsamples = 1\nvalue = [0, 1]\nclass = non-churn", fillcolor="#399de5"] ;
94 -> 104 ;
105 [label="gini = 0.0\nsamples = 1\nvalue = [0, 1]\nclass = non-churn", fillcolor="#399de5"] ;
93 -> 105 ;
106 [label="total eve charge <= 14.58\ngini = 0.03\nsamples = 197\nvalue = [194, 3]\nclass = churn", fillcolor="#e5833c"] ;
92 -> 106 ;
107 [label="total eve charge <= 14.52\ngini = 0.32\nsamples = 5\nvalue = [4, 1]\nclass = churn", fillcolor="#eca06a"] ;
106 -> 107 ;
108 [label="gini = 0.0\nsamples = 4\nvalue = [4, 0]\nclass = churn", fillcolor="#e58139"] ;
107 -> 108 ;
109 [label="gini = 0.0\nsamples = 1\nvalue = [0, 1]\nclass = non-churn", fillcolor="#399de5"] ;
107 -> 109 ;
110 [label="total eve minutes <= 248.05\ngini = 0.021\nsamples = 192\nvalue = [190, 2]\nclass = churn", fillcolor="#e5823b"] ;
106 -> 110 ;
111 [label="gini = 0.0\nsamples = 144\nvalue = [144, 0]\nclass = churn", fillcolor="#e58139"] ;
110 -> 111 ;
112 [label="total eve minutes <= 248.3\ngini = 0.08\nsamples = 48\nvalue = [46, 2]\nclass = churn", fillcolor="#e68642"] ;
110 -> 112 ;
113 [label="gini = 0.0\nsamples = 1\nvalue = [0, 1]\nclass = non-churn", fillcolor="#399de5"] ;
112 -> 113 ;
114 [label="total night minutes <= 254.9\ngini = 0.042\nsamples = 47\nvalue = [46, 1]\nclass = churn", fillcolor="#e6843d"] ;
112 -> 114 ;
115 [label="gini = 0.0\nsamples = 41\nvalue = [41, 0]\nclass = churn", fillcolor="#e58139"] ;
114 -> 115 ;
116 [label="total night charge <= 11.69\ngini = 0.278\nsamples = 6\nvalue = [5, 1]\nclass = churn", fillcolor="#ea9a61"] ;
114 -> 116 ;
117 [label="gini = 0.0\nsamples = 1\nvalue = [0, 1]\nclass = non-churn", fillcolor="#399de5"] ;
116 -> 117 ;
118 [label="gini = 0.0\nsamples = 5\nvalue = [5, 0]\nclass = churn", fillcolor="#e58139"] ;
116 -> 118 ;
119 [label="total night minutes <= 299.9\ngini = 0.375\nsamples = 4\nvalue = [3, 1]\nclass = churn", fillcolor="#eeab7b"] ;
81 -> 119 ;
120 [label="gini = 0.0\nsamples = 1\nvalue = [0, 1]\nclass = non-churn", fillcolor="#399de5"] ;
119 -> 120 ;
121 [label="gini = 0.0\nsamples = 3\nvalue = [3, 0]\nclass = churn", fillcolor="#e58139"] ;
119 -> 121 ;
122 [label="gini = 0.0\nsamples = 124\nvalue = [124, 0]\nclass = churn", fillcolor="#e58139"] ;
80 -> 122 ;
123 [label="total intl charge <= 4.265\ngini = 0.298\nsamples = 11\nvalue = [9, 2]\nclass = churn", fillcolor="#eb9d65"] ;
79 -> 123 ;
124 [label="total day charge <= 18.485\ngini = 0.444\nsamples = 3\nvalue = [1, 2]\nclass = non-churn", fillcolor="#9ccef2"] ;
123 -> 124 ;
125 [label="gini = 0.0\nsamples = 1\nvalue = [1, 0]\nclass = churn", fillcolor="#e58139"] ;
124 -> 125 ;
126 [label="gini = 0.0\nsamples = 2\nvalue = [0, 2]\nclass = non-churn", fillcolor="#399de5"] ;
124 -> 126 ;
127 [label="gini = 0.0\nsamples = 8\nvalue = [8, 0]\nclass = churn", fillcolor="#e58139"] ;
123 -> 127 ;
128 [label="total eve calls <= 128.5\ngini = 0.206\nsamples = 43\nvalue = [38, 5]\nclass = churn", fillcolor="#e89253"] ;
78 -> 128 ;
129 [label="account length <= 155.5\ngini = 0.139\nsamples = 40\nvalue = [37, 3]\nclass = churn", fillcolor="#e78b49"] ;
128 -> 129 ;
130 [label="total eve calls <= 90.5\ngini = 0.469\nsamples = 8\nvalue = [5, 3]\nclass = churn", fillcolor="#f5cdb0"] ;
129 -> 130 ;
131 [label="gini = 0.0\nsamples = 2\nvalue = [0, 2]\nclass = non-churn", fillcolor="#399de5"] ;
130 -> 131 ;
132 [label="total day minutes <= 198.6\ngini = 0.278\nsamples = 6\nvalue = [5, 1]\nclass = churn", fillcolor="#ea9a61"] ;
130 -> 132 ;
133 [label="gini = 0.0\nsamples = 5\nvalue = [5, 0]\nclass = churn", fillcolor="#e58139"] ;
132 -> 133 ;
134 [label="gini = 0.0\nsamples = 1\nvalue = [0, 1]\nclass = non-churn", fillcolor="#399de5"] ;
132 -> 134 ;
135 [label="gini = 0.0\nsamples = 32\nvalue = [32, 0]\nclass = churn", fillcolor="#e58139"] ;
129 -> 135 ;
136 [label="total night charge <= 8.385\ngini = 0.444\nsamples = 3\nvalue = [1, 2]\nclass = non-churn", fillcolor="#9ccef2"] ;
128 -> 136 ;
137 [label="gini = 0.0\nsamples = 1\nvalue = [1, 0]\nclass = churn", fillcolor="#e58139"] ;
136 -> 137 ;
138 [label="gini = 0.0\nsamples = 2\nvalue = [0, 2]\nclass = non-churn", fillcolor="#399de5"] ;
136 -> 138 ;
139 [label="total day charge <= 35.81\ngini = 0.131\nsamples = 114\nvalue = [106, 8]\nclass = churn", fillcolor="#e78b48"] ;
37 -> 139 ;
140 [label="gini = 0.0\nsamples = 1\nvalue = [0, 1]\nclass = non-churn", fillcolor="#399de5"] ;
139 -> 140 ;
141 [label="total eve minutes <= 303.35\ngini = 0.116\nsamples = 113\nvalue = [106, 7]\nclass = churn", fillcolor="#e78946"] ;
139 -> 141 ;
142 [label="total day charge <= 36.37\ngini = 0.102\nsamples = 111\nvalue = [105, 6]\nclass = churn", fillcolor="#e68844"] ;
141 -> 142 ;
143 [label="total eve minutes <= 181.8\ngini = 0.238\nsamples = 29\nvalue = [25, 4]\nclass = churn", fillcolor="#e99559"] ;
142 -> 143 ;
144 [label="gini = 0.0\nsamples = 1\nvalue = [0, 1]\nclass = non-churn", fillcolor="#399de5"] ;
143 -> 144 ;
145 [label="total day charge <= 36.355\ngini = 0.191\nsamples = 28\nvalue = [25, 3]\nclass = churn", fillcolor="#e89051"] ;
143 -> 145 ;
146 [label="total day calls <= 125.5\ngini = 0.137\nsamples = 27\nvalue = [25, 2]\nclass = churn", fillcolor="#e78b49"] ;
145 -> 146 ;
147 [label="total eve calls <= 136.5\ngini = 0.074\nsamples = 26\nvalue = [25, 1]\nclass = churn", fillcolor="#e68641"] ;
146 -> 147 ;
148 [label="gini = 0.0\nsamples = 24\nvalue = [24, 0]\nclass = churn", fillcolor="#e58139"] ;
147 -> 148 ;
149 [label="total intl charge <= 2.875\ngini = 0.5\nsamples = 2\nvalue = [1, 1]\nclass = churn", fillcolor="#ffffff"] ;
147 -> 149 ;
150 [label="gini = 0.0\nsamples = 1\nvalue = [0, 1]\nclass = non-churn", fillcolor="#399de5"] ;
149 -> 150 ;
151 [label="gini = 0.0\nsamples = 1\nvalue = [1, 0]\nclass = churn", fillcolor="#e58139"] ;
149 -> 151 ;
152 [label="gini = 0.0\nsamples = 1\nvalue = [0, 1]\nclass = non-churn", fillcolor="#399de5"] ;
146 -> 152 ;
153 [label="gini = 0.0\nsamples = 1\nvalue = [0, 1]\nclass = non-churn", fillcolor="#399de5"] ;
145 -> 153 ;
154 [label="number vmail messages <= 41.5\ngini = 0.048\nsamples = 82\nvalue = [80, 2]\nclass = churn", fillcolor="#e6843e"] ;
142 -> 154 ;
155 [label="total eve charge <= 24.275\ngini = 0.025\nsamples = 79\nvalue = [78, 1]\nclass = churn", fillcolor="#e5833c"] ;
154 -> 155 ;
156 [label="gini = 0.0\nsamples = 74\nvalue = [74, 0]\nclass = churn", fillcolor="#e58139"] ;
155 -> 156 ;
157 [label="total intl charge <= 3.16\ngini = 0.32\nsamples = 5\nvalue = [4, 1]\nclass = churn", fillcolor="#eca06a"] ;
155 -> 157 ;
158 [label="gini = 0.0\nsamples = 4\nvalue = [4, 0]\nclass = churn", fillcolor="#e58139"] ;
157 -> 158 ;
159 [label="gini = 0.0\nsamples = 1\nvalue = [0, 1]\nclass = non-churn", fillcolor="#399de5"] ;
157 -> 159 ;
160 [label="total day calls <= 118.5\ngini = 0.444\nsamples = 3\nvalue = [2, 1]\nclass = churn", fillcolor="#f2c09c"] ;
154 -> 160 ;
161 [label="gini = 0.0\nsamples = 2\nvalue = [2, 0]\nclass = churn", fillcolor="#e58139"] ;
160 -> 161 ;
162 [label="gini = 0.0\nsamples = 1\nvalue = [0, 1]\nclass = non-churn", fillcolor="#399de5"] ;
160 -> 162 ;
163 [label="account length <= 97.5\ngini = 0.5\nsamples = 2\nvalue = [1, 1]\nclass = churn", fillcolor="#ffffff"] ;
141 -> 163 ;
164 [label="gini = 0.0\nsamples = 1\nvalue = [1, 0]\nclass = churn", fillcolor="#e58139"] ;
163 -> 164 ;
165 [label="gini = 0.0\nsamples = 1\nvalue = [0, 1]\nclass = non-churn", fillcolor="#399de5"] ;
163 -> 165 ;
166 [label="total eve charge <= 10.895\ngini = 0.32\nsamples = 5\nvalue = [4, 1]\nclass = churn", fillcolor="#eca06a"] ;
6 -> 166 ;
167 [label="gini = 0.0\nsamples = 1\nvalue = [0, 1]\nclass = non-churn", fillcolor="#399de5"] ;
166 -> 167 ;
168 [label="gini = 0.0\nsamples = 4\nvalue = [4, 0]\nclass = churn", fillcolor="#e58139"] ;
166 -> 168 ;
169 [label="total eve calls <= 73.5\ngini = 0.32\nsamples = 5\nvalue = [4, 1]\nclass = churn", fillcolor="#eca06a"] ;
5 -> 169 ;
170 [label="gini = 0.0\nsamples = 1\nvalue = [0, 1]\nclass = non-churn", fillcolor="#399de5"] ;
169 -> 170 ;
171 [label="gini = 0.0\nsamples = 4\nvalue = [4, 0]\nclass = churn", fillcolor="#e58139"] ;
169 -> 171 ;
172 [label="total day calls <= 105.0\ngini = 0.444\nsamples = 6\nvalue = [4, 2]\nclass = churn", fillcolor="#f2c09c"] ;
4 -> 172 ;
173 [label="gini = 0.0\nsamples = 4\nvalue = [4, 0]\nclass = churn", fillcolor="#e58139"] ;
172 -> 173 ;
174 [label="gini = 0.0\nsamples = 2\nvalue = [0, 2]\nclass = non-churn", fillcolor="#399de5"] ;
172 -> 174 ;
175 [label="total eve charge <= 22.67\ngini = 0.291\nsamples = 277\nvalue = [228, 49]\nclass = churn", fillcolor="#eb9c64"] ;
3 -> 175 ;
176 [label="total night charge <= 9.085\ngini = 0.199\nsamples = 250\nvalue = [222, 28]\nclass = churn", fillcolor="#e89152"] ;
175 -> 176 ;
177 [label="account length <= 25.5\ngini = 0.074\nsamples = 130\nvalue = [125, 5]\nclass = churn", fillcolor="#e68641"] ;
176 -> 177 ;
178 [label="total eve calls <= 111.0\ngini = 0.48\nsamples = 5\nvalue = [3, 2]\nclass = churn", fillcolor="#f6d5bd"] ;
177 -> 178 ;
179 [label="gini = 0.0\nsamples = 2\nvalue = [0, 2]\nclass = non-churn", fillcolor="#399de5"] ;
178 -> 179 ;
180 [label="gini = 0.0\nsamples = 3\nvalue = [3, 0]\nclass = churn", fillcolor="#e58139"] ;
178 -> 180 ;
181 [label="account length <= 54.0\ngini = 0.047\nsamples = 125\nvalue = [122, 3]\nclass = churn", fillcolor="#e6843e"] ;
177 -> 181 ;
182 [label="total eve minutes <= 137.75\ngini = 0.231\nsamples = 15\nvalue = [13, 2]\nclass = churn", fillcolor="#e99457"] ;
181 -> 182 ;
183 [label="gini = 0.0\nsamples = 1\nvalue = [0, 1]\nclass = non-churn", fillcolor="#399de5"] ;
182 -> 183 ;
184 [label="total day charge <= 44.37\ngini = 0.133\nsamples = 14\nvalue = [13, 1]\nclass = churn", fillcolor="#e78b48"] ;
182 -> 184 ;
185 [label="gini = 0.0\nsamples = 13\nvalue = [13, 0]\nclass = churn", fillcolor="#e58139"] ;
184 -> 185 ;
186 [label="gini = 0.0\nsamples = 1\nvalue = [0, 1]\nclass = non-churn", fillcolor="#399de5"] ;
184 -> 186 ;
187 [label="total eve calls <= 131.5\ngini = 0.018\nsamples = 110\nvalue = [109, 1]\nclass = churn", fillcolor="#e5823b"] ;
181 -> 187 ;
188 [label="gini = 0.0\nsamples = 106\nvalue = [106, 0]\nclass = churn", fillcolor="#e58139"] ;
187 -> 188 ;
189 [label="number vmail messages <= 30.0\ngini = 0.375\nsamples = 4\nvalue = [3, 1]\nclass = churn", fillcolor="#eeab7b"] ;
187 -> 189 ;
190 [label="gini = 0.0\nsamples = 3\nvalue = [3, 0]\nclass = churn", fillcolor="#e58139"] ;
189 -> 190 ;
191 [label="gini = 0.0\nsamples = 1\nvalue = [0, 1]\nclass = non-churn", fillcolor="#399de5"] ;
189 -> 191 ;
192 [label="total day charge <= 41.665\ngini = 0.31\nsamples = 120\nvalue = [97, 23]\nclass = churn", fillcolor="#eb9f68"] ;
176 -> 192 ;
193 [label="total night minutes <= 205.4\ngini = 0.169\nsamples = 86\nvalue = [78, 8]\nclass = churn", fillcolor="#e88e4d"] ;
192 -> 193 ;
194 [label="total eve calls <= 132.0\ngini = 0.444\nsamples = 3\nvalue = [1, 2]\nclass = non-churn", fillcolor="#9ccef2"] ;
193 -> 194 ;
195 [label="gini = 0.0\nsamples = 2\nvalue = [0, 2]\nclass = non-churn", fillcolor="#399de5"] ;
194 -> 195 ;
196 [label="gini = 0.0\nsamples = 1\nvalue = [1, 0]\nclass = churn", fillcolor="#e58139"] ;
194 -> 196 ;
197 [label="total eve charge <= 20.415\ngini = 0.134\nsamples = 83\nvalue = [77, 6]\nclass = churn", fillcolor="#e78b48"] ;
193 -> 197 ;
198 [label="total eve calls <= 106.5\ngini = 0.081\nsamples = 71\nvalue = [68, 3]\nclass = churn", fillcolor="#e68742"] ;
197 -> 198 ;
199 [label="gini = 0.0\nsamples = 42\nvalue = [42, 0]\nclass = churn", fillcolor="#e58139"] ;
198 -> 199 ;
200 [label="account length <= 129.5\ngini = 0.185\nsamples = 29\nvalue = [26, 3]\nclass = churn", fillcolor="#e89050"] ;
198 -> 200 ;
201 [label="total night charge <= 13.405\ngini = 0.08\nsamples = 24\nvalue = [23, 1]\nclass = churn", fillcolor="#e68642"] ;
200 -> 201 ;
202 [label="gini = 0.0\nsamples = 22\nvalue = [22, 0]\nclass = churn", fillcolor="#e58139"] ;
201 -> 202 ;
203 [label="total intl calls <= 5.0\ngini = 0.5\nsamples = 2\nvalue = [1, 1]\nclass = churn", fillcolor="#ffffff"] ;
201 -> 203 ;
204 [label="gini = 0.0\nsamples = 1\nvalue = [1, 0]\nclass = churn", fillcolor="#e58139"] ;
203 -> 204 ;
205 [label="gini = 0.0\nsamples = 1\nvalue = [0, 1]\nclass = non-churn", fillcolor="#399de5"] ;
203 -> 205 ;
206 [label="total day minutes <= 237.1\ngini = 0.48\nsamples = 5\nvalue = [3, 2]\nclass = churn", fillcolor="#f6d5bd"] ;
200 -> 206 ;
207 [label="gini = 0.0\nsamples = 2\nvalue = [0, 2]\nclass = non-churn", fillcolor="#399de5"] ;
206 -> 207 ;
208 [label="gini = 0.0\nsamples = 3\nvalue = [3, 0]\nclass = churn", fillcolor="#e58139"] ;
206 -> 208 ;
209 [label="total day minutes <= 237.3\ngini = 0.375\nsamples = 12\nvalue = [9, 3]\nclass = churn", fillcolor="#eeab7b"] ;
197 -> 209 ;
210 [label="gini = 0.0\nsamples = 7\nvalue = [7, 0]\nclass = churn", fillcolor="#e58139"] ;
209 -> 210 ;
211 [label="voice mail plan_yes <= 0.5\ngini = 0.48\nsamples = 5\nvalue = [2, 3]\nclass = non-churn", fillcolor="#bddef6"] ;
209 -> 211 ;
212 [label="gini = 0.0\nsamples = 3\nvalue = [0, 3]\nclass = non-churn", fillcolor="#399de5"] ;
211 -> 212 ;
213 [label="gini = 0.0\nsamples = 2\nvalue = [2, 0]\nclass = churn", fillcolor="#e58139"] ;
211 -> 213 ;
214 [label="total eve charge <= 17.01\ngini = 0.493\nsamples = 34\nvalue = [19, 15]\nclass = churn", fillcolor="#fae4d5"] ;
192 -> 214 ;
215 [label="total night charge <= 13.075\ngini = 0.117\nsamples = 16\nvalue = [15, 1]\nclass = churn", fillcolor="#e78946"] ;
214 -> 215 ;
216 [label="gini = 0.0\nsamples = 15\nvalue = [15, 0]\nclass = churn", fillcolor="#e58139"] ;
215 -> 216 ;
217 [label="gini = 0.0\nsamples = 1\nvalue = [0, 1]\nclass = non-churn", fillcolor="#399de5"] ;
215 -> 217 ;
218 [label="number vmail messages <= 12.0\ngini = 0.346\nsamples = 18\nvalue = [4, 14]\nclass = non-churn", fillcolor="#72b9ec"] ;
214 -> 218 ;
219 [label="total eve calls <= 80.5\ngini = 0.124\nsamples = 15\nvalue = [1, 14]\nclass = non-churn", fillcolor="#47a4e7"] ;
218 -> 219 ;
220 [label="total day minutes <= 257.35\ngini = 0.5\nsamples = 2\nvalue = [1, 1]\nclass = churn", fillcolor="#ffffff"] ;
219 -> 220 ;
221 [label="gini = 0.0\nsamples = 1\nvalue = [1, 0]\nclass = churn", fillcolor="#e58139"] ;
220 -> 221 ;
222 [label="gini = 0.0\nsamples = 1\nvalue = [0, 1]\nclass = non-churn", fillcolor="#399de5"] ;
220 -> 222 ;
223 [label="gini = 0.0\nsamples = 13\nvalue = [0, 13]\nclass = non-churn", fillcolor="#399de5"] ;
219 -> 223 ;
224 [label="gini = 0.0\nsamples = 3\nvalue = [3, 0]\nclass = churn", fillcolor="#e58139"] ;
218 -> 224 ;
225 [label="number vmail messages <= 14.5\ngini = 0.346\nsamples = 27\nvalue = [6, 21]\nclass = non-churn", fillcolor="#72b9ec"] ;
175 -> 225 ;
226 [label="total night charge <= 6.99\ngini = 0.087\nsamples = 22\nvalue = [1, 21]\nclass = non-churn", fillcolor="#42a2e6"] ;
225 -> 226 ;
227 [label="customer service calls <= 1.5\ngini = 0.5\nsamples = 2\nvalue = [1, 1]\nclass = churn", fillcolor="#ffffff"] ;
226 -> 227 ;
228 [label="gini = 0.0\nsamples = 1\nvalue = [1, 0]\nclass = churn", fillcolor="#e58139"] ;
227 -> 228 ;
229 [label="gini = 0.0\nsamples = 1\nvalue = [0, 1]\nclass = non-churn", fillcolor="#399de5"] ;
227 -> 229 ;
230 [label="gini = 0.0\nsamples = 20\nvalue = [0, 20]\nclass = non-churn", fillcolor="#399de5"] ;
226 -> 230 ;
231 [label="gini = 0.0\nsamples = 5\nvalue = [5, 0]\nclass = churn", fillcolor="#e58139"] ;
225 -> 231 ;
232 [label="total intl charge <= 3.535\ngini = 0.471\nsamples = 195\nvalue = [121, 74]\nclass = churn", fillcolor="#f5ceb2"] ;
2 -> 232 ;
233 [label="total intl calls <= 2.5\ngini = 0.364\nsamples = 159\nvalue = [121.0, 38.0]\nclass = churn", fillcolor="#eda977"] ;
232 -> 233 ;
234 [label="gini = 0.0\nsamples = 33\nvalue = [0, 33]\nclass = non-churn", fillcolor="#399de5"] ;
233 -> 234 ;
235 [label="total day charge <= 42.825\ngini = 0.076\nsamples = 126\nvalue = [121, 5]\nclass = churn", fillcolor="#e68641"] ;
233 -> 235 ;
236 [label="total night charge <= 3.8\ngini = 0.033\nsamples = 118\nvalue = [116, 2]\nclass = churn", fillcolor="#e5833c"] ;
235 -> 236 ;
237 [label="gini = 0.0\nsamples = 1\nvalue = [0, 1]\nclass = non-churn", fillcolor="#399de5"] ;
236 -> 237 ;
238 [label="total eve minutes <= 344.0\ngini = 0.017\nsamples = 117\nvalue = [116, 1]\nclass = churn", fillcolor="#e5823b"] ;
236 -> 238 ;
239 [label="gini = 0.0\nsamples = 116\nvalue = [116, 0]\nclass = churn", fillcolor="#e58139"] ;
238 -> 239 ;
240 [label="gini = 0.0\nsamples = 1\nvalue = [0, 1]\nclass = non-churn", fillcolor="#399de5"] ;
238 -> 240 ;
241 [label="total eve calls <= 111.5\ngini = 0.469\nsamples = 8\nvalue = [5, 3]\nclass = churn", fillcolor="#f5cdb0"] ;
235 -> 241 ;
242 [label="total intl minutes <= 8.35\ngini = 0.278\nsamples = 6\nvalue = [5, 1]\nclass = churn", fillcolor="#ea9a61"] ;
241 -> 242 ;
243 [label="gini = 0.0\nsamples = 1\nvalue = [0, 1]\nclass = non-churn", fillcolor="#399de5"] ;
242 -> 243 ;
244 [label="gini = 0.0\nsamples = 5\nvalue = [5, 0]\nclass = churn", fillcolor="#e58139"] ;
242 -> 244 ;
245 [label="gini = 0.0\nsamples = 2\nvalue = [0, 2]\nclass = non-churn", fillcolor="#399de5"] ;
241 -> 245 ;
246 [label="gini = 0.0\nsamples = 36\nvalue = [0, 36]\nclass = non-churn", fillcolor="#399de5"] ;
232 -> 246 ;
247 [label="total day charge <= 29.505\ngini = 0.5\nsamples = 188\nvalue = [92.0, 96.0]\nclass = non-churn", fillcolor="#f7fbfe"] ;
1 -> 247 ;
248 [label="total eve charge <= 16.22\ngini = 0.295\nsamples = 100\nvalue = [18, 82]\nclass = non-churn", fillcolor="#64b3eb"] ;
247 -> 248 ;
249 [label="gini = 0.0\nsamples = 48\nvalue = [0, 48]\nclass = non-churn", fillcolor="#399de5"] ;
248 -> 249 ;
250 [label="total day charge <= 25.78\ngini = 0.453\nsamples = 52\nvalue = [18, 34]\nclass = non-churn", fillcolor="#a2d1f3"] ;
248 -> 250 ;
251 [label="total intl calls <= 6.5\ngini = 0.165\nsamples = 33\nvalue = [3, 30]\nclass = non-churn", fillcolor="#4da7e8"] ;
250 -> 251 ;
252 [label="gini = 0.0\nsamples = 27\nvalue = [0, 27]\nclass = non-churn", fillcolor="#399de5"] ;
251 -> 252 ;
253 [label="total day charge <= 21.37\ngini = 0.5\nsamples = 6\nvalue = [3, 3]\nclass = churn", fillcolor="#ffffff"] ;
251 -> 253 ;
254 [label="gini = 0.0\nsamples = 3\nvalue = [0, 3]\nclass = non-churn", fillcolor="#399de5"] ;
253 -> 254 ;
255 [label="gini = 0.0\nsamples = 3\nvalue = [3, 0]\nclass = churn", fillcolor="#e58139"] ;
253 -> 255 ;
256 [label="total night minutes <= 171.4\ngini = 0.332\nsamples = 19\nvalue = [15, 4]\nclass = churn", fillcolor="#eca36e"] ;
250 -> 256 ;
257 [label="total eve minutes <= 224.65\ngini = 0.49\nsamples = 7\nvalue = [3, 4]\nclass = non-churn", fillcolor="#cee6f8"] ;
256 -> 257 ;
258 [label="gini = 0.0\nsamples = 4\nvalue = [0, 4]\nclass = non-churn", fillcolor="#399de5"] ;
257 -> 258 ;
259 [label="gini = 0.0\nsamples = 3\nvalue = [3, 0]\nclass = churn", fillcolor="#e58139"] ;
257 -> 259 ;
260 [label="gini = 0.0\nsamples = 12\nvalue = [12, 0]\nclass = churn", fillcolor="#e58139"] ;
256 -> 260 ;
261 [label="total eve minutes <= 138.5\ngini = 0.268\nsamples = 88\nvalue = [74, 14]\nclass = churn", fillcolor="#ea995e"] ;
247 -> 261 ;
262 [label="total day charge <= 40.28\ngini = 0.444\nsamples = 9\nvalue = [3, 6]\nclass = non-churn", fillcolor="#9ccef2"] ;
261 -> 262 ;
263 [label="total intl calls <= 5.5\ngini = 0.245\nsamples = 7\nvalue = [1, 6]\nclass = non-churn", fillcolor="#5aade9"] ;
262 -> 263 ;
264 [label="gini = 0.0\nsamples = 6\nvalue = [0, 6]\nclass = non-churn", fillcolor="#399de5"] ;
263 -> 264 ;
265 [label="gini = 0.0\nsamples = 1\nvalue = [1, 0]\nclass = churn", fillcolor="#e58139"] ;
263 -> 265 ;
266 [label="gini = 0.0\nsamples = 2\nvalue = [2, 0]\nclass = churn", fillcolor="#e58139"] ;
262 -> 266 ;
267 [label="international plan_yes <= 0.5\ngini = 0.182\nsamples = 79\nvalue = [71, 8]\nclass = churn", fillcolor="#e88f4f"] ;
261 -> 267 ;
268 [label="total day calls <= 144.5\ngini = 0.108\nsamples = 70\nvalue = [66, 4]\nclass = churn", fillcolor="#e78945"] ;
267 -> 268 ;
269 [label="total night calls <= 120.5\ngini = 0.083\nsamples = 69\nvalue = [66, 3]\nclass = churn", fillcolor="#e68742"] ;
268 -> 269 ;
270 [label="account length <= 45.0\ngini = 0.032\nsamples = 62\nvalue = [61, 1]\nclass = churn", fillcolor="#e5833c"] ;
269 -> 270 ;
271 [label="total night calls <= 106.5\ngini = 0.32\nsamples = 5\nvalue = [4, 1]\nclass = churn", fillcolor="#eca06a"] ;
270 -> 271 ;
272 [label="gini = 0.0\nsamples = 4\nvalue = [4, 0]\nclass = churn", fillcolor="#e58139"] ;
271 -> 272 ;
273 [label="gini = 0.0\nsamples = 1\nvalue = [0, 1]\nclass = non-churn", fillcolor="#399de5"] ;
271 -> 273 ;
274 [label="gini = 0.0\nsamples = 57\nvalue = [57, 0]\nclass = churn", fillcolor="#e58139"] ;
270 -> 274 ;
275 [label="total intl minutes <= 8.95\ngini = 0.408\nsamples = 7\nvalue = [5, 2]\nclass = churn", fillcolor="#efb388"] ;
269 -> 275 ;
276 [label="total intl minutes <= 5.85\ngini = 0.444\nsamples = 3\nvalue = [1, 2]\nclass = non-churn", fillcolor="#9ccef2"] ;
275 -> 276 ;
277 [label="gini = 0.0\nsamples = 1\nvalue = [1, 0]\nclass = churn", fillcolor="#e58139"] ;
276 -> 277 ;
278 [label="gini = 0.0\nsamples = 2\nvalue = [0, 2]\nclass = non-churn", fillcolor="#399de5"] ;
276 -> 278 ;
279 [label="gini = 0.0\nsamples = 4\nvalue = [4, 0]\nclass = churn", fillcolor="#e58139"] ;
275 -> 279 ;
280 [label="gini = 0.0\nsamples = 1\nvalue = [0, 1]\nclass = non-churn", fillcolor="#399de5"] ;
268 -> 280 ;
281 [label="total intl minutes <= 12.9\ngini = 0.494\nsamples = 9\nvalue = [5, 4]\nclass = churn", fillcolor="#fae6d7"] ;
267 -> 281 ;
282 [label="total intl calls <= 3.0\ngini = 0.278\nsamples = 6\nvalue = [5, 1]\nclass = churn", fillcolor="#ea9a61"] ;
281 -> 282 ;
283 [label="gini = 0.0\nsamples = 1\nvalue = [0, 1]\nclass = non-churn", fillcolor="#399de5"] ;
282 -> 283 ;
284 [label="gini = 0.0\nsamples = 5\nvalue = [5, 0]\nclass = churn", fillcolor="#e58139"] ;
282 -> 284 ;
285 [label="gini = 0.0\nsamples = 3\nvalue = [0, 3]\nclass = non-churn", fillcolor="#399de5"] ;
281 -> 285 ;
286 [label="number vmail messages <= 6.5\ngini = 0.493\nsamples = 166\nvalue = [73, 93]\nclass = non-churn", fillcolor="#d4eaf9"] ;
0 -> 286 [labeldistance=2.5, labelangle=-45, headlabel="False"] ;
287 [label="total eve charge <= 15.695\ngini = 0.397\nsamples = 121\nvalue = [33, 88]\nclass = non-churn", fillcolor="#83c2ef"] ;
286 -> 287 ;
288 [label="total day charge <= 52.905\ngini = 0.439\nsamples = 40\nvalue = [27, 13]\nclass = churn", fillcolor="#f2be98"] ;
287 -> 288 ;
289 [label="total night charge <= 9.465\ngini = 0.327\nsamples = 34\nvalue = [27, 7]\nclass = churn", fillcolor="#eca26c"] ;
288 -> 289 ;
290 [label="account length <= 164.5\ngini = 0.091\nsamples = 21\nvalue = [20, 1]\nclass = churn", fillcolor="#e68743"] ;
289 -> 290 ;
291 [label="gini = 0.0\nsamples = 20\nvalue = [20, 0]\nclass = churn", fillcolor="#e58139"] ;
290 -> 291 ;
292 [label="gini = 0.0\nsamples = 1\nvalue = [0, 1]\nclass = non-churn", fillcolor="#399de5"] ;
290 -> 292 ;
293 [label="total eve minutes <= 135.55\ngini = 0.497\nsamples = 13\nvalue = [7, 6]\nclass = churn", fillcolor="#fbede3"] ;
289 -> 293 ;
294 [label="gini = 0.0\nsamples = 5\nvalue = [5, 0]\nclass = churn", fillcolor="#e58139"] ;
293 -> 294 ;
295 [label="total night calls <= 72.5\ngini = 0.375\nsamples = 8\nvalue = [2, 6]\nclass = non-churn", fillcolor="#7bbeee"] ;
293 -> 295 ;
296 [label="gini = 0.0\nsamples = 1\nvalue = [1, 0]\nclass = churn", fillcolor="#e58139"] ;
295 -> 296 ;
297 [label="total intl minutes <= 8.25\ngini = 0.245\nsamples = 7\nvalue = [1, 6]\nclass = non-churn", fillcolor="#5aade9"] ;
295 -> 297 ;
298 [label="gini = 0.0\nsamples = 1\nvalue = [1, 0]\nclass = churn", fillcolor="#e58139"] ;
297 -> 298 ;
299 [label="gini = 0.0\nsamples = 6\nvalue = [0, 6]\nclass = non-churn", fillcolor="#399de5"] ;
297 -> 299 ;
300 [label="gini = 0.0\nsamples = 6\nvalue = [0, 6]\nclass = non-churn", fillcolor="#399de5"] ;
288 -> 300 ;
301 [label="total night charge <= 5.155\ngini = 0.137\nsamples = 81\nvalue = [6, 75]\nclass = non-churn", fillcolor="#49a5e7"] ;
287 -> 301 ;
302 [label="total intl calls <= 2.5\ngini = 0.375\nsamples = 4\nvalue = [3, 1]\nclass = churn", fillcolor="#eeab7b"] ;
301 -> 302 ;
303 [label="gini = 0.0\nsamples = 1\nvalue = [0, 1]\nclass = non-churn", fillcolor="#399de5"] ;
302 -> 303 ;
304 [label="gini = 0.0\nsamples = 3\nvalue = [3, 0]\nclass = churn", fillcolor="#e58139"] ;
302 -> 304 ;
305 [label="total day calls <= 147.5\ngini = 0.075\nsamples = 77\nvalue = [3, 74]\nclass = non-churn", fillcolor="#41a1e6"] ;
301 -> 305 ;
306 [label="total night minutes <= 127.0\ngini = 0.051\nsamples = 76\nvalue = [2, 74]\nclass = non-churn", fillcolor="#3ea0e6"] ;
305 -> 306 ;
307 [label="account length <= 108.0\ngini = 0.444\nsamples = 3\nvalue = [1, 2]\nclass = non-churn", fillcolor="#9ccef2"] ;
306 -> 307 ;
308 [label="gini = 0.0\nsamples = 1\nvalue = [1, 0]\nclass = churn", fillcolor="#e58139"] ;
307 -> 308 ;
309 [label="gini = 0.0\nsamples = 2\nvalue = [0, 2]\nclass = non-churn", fillcolor="#399de5"] ;
307 -> 309 ;
310 [label="total night calls <= 67.5\ngini = 0.027\nsamples = 73\nvalue = [1, 72]\nclass = non-churn", fillcolor="#3c9ee5"] ;
306 -> 310 ;
311 [label="total intl charge <= 1.795\ngini = 0.32\nsamples = 5\nvalue = [1, 4]\nclass = non-churn", fillcolor="#6ab6ec"] ;
310 -> 311 ;
312 [label="gini = 0.0\nsamples = 1\nvalue = [1, 0]\nclass = churn", fillcolor="#e58139"] ;
311 -> 312 ;
313 [label="gini = 0.0\nsamples = 4\nvalue = [0, 4]\nclass = non-churn", fillcolor="#399de5"] ;
311 -> 313 ;
314 [label="gini = 0.0\nsamples = 68\nvalue = [0, 68]\nclass = non-churn", fillcolor="#399de5"] ;
310 -> 314 ;
315 [label="gini = 0.0\nsamples = 1\nvalue = [1, 0]\nclass = churn", fillcolor="#e58139"] ;
305 -> 315 ;
316 [label="international plan_yes <= 0.5\ngini = 0.198\nsamples = 45\nvalue = [40, 5]\nclass = churn", fillcolor="#e89152"] ;
286 -> 316 ;
317 [label="gini = 0.0\nsamples = 38\nvalue = [38, 0]\nclass = churn", fillcolor="#e58139"] ;
316 -> 317 ;
318 [label="total eve calls <= 84.0\ngini = 0.408\nsamples = 7\nvalue = [2, 5]\nclass = non-churn", fillcolor="#88c4ef"] ;
316 -> 318 ;
319 [label="total intl calls <= 2.5\ngini = 0.444\nsamples = 3\nvalue = [2, 1]\nclass = churn", fillcolor="#f2c09c"] ;
318 -> 319 ;
320 [label="gini = 0.0\nsamples = 1\nvalue = [0, 1]\nclass = non-churn", fillcolor="#399de5"] ;
319 -> 320 ;
321 [label="gini = 0.0\nsamples = 2\nvalue = [2, 0]\nclass = churn", fillcolor="#e58139"] ;
319 -> 321 ;
322 [label="gini = 0.0\nsamples = 4\nvalue = [0, 4]\nclass = non-churn", fillcolor="#399de5"] ;
318 -> 322 ;
}